0.610154606777,2.29158439012,-1.21418452476,1.3020402117,-1.72083777397,-3.30739503565,-1.4745307927,1.4524317642,2.5657482148,0.564341839932,0.148418819553,0.59145693245,-0.786087106346,-1.06171764587,0.147435139089,-0.420272247038,0.347774518652,0.326653512933 1.16977178145,-1.43049855528,1.66524670903,-0.905214913137,0.280640781055,1.17813514084,1.87466485452,1.01696220591,0.325489597769,1.32768063835,-0.23511733155,-1.37428760327,-0.00406508924904,-0.804243419052,0.237252545182,0.253136017426,-0.0189697727378,2.83607673964 -0.323918524337,-2.19554301503,0.510067865659,0.082212834834,1.21357057082,0.734210278745,0.630092915211,0.638252440681,-0.272266680479,-0.935923286041,-0.0788811384419,1.39763859724,0.429085764839,-0.763488989006,-1.35374830341,-1.52224532852,0.474418559784,-0.937880026687 48.6299248432,-115.63295053,40.7607632014,-80.0505437281,-2.53082230966,13.7568457767,-0.25369427934,80.9629255238,-15.1362145828,-9.51037152355,-22.2691793405,-57.6914671166,-41.5115325752,110.081881241,164.725698876,-8.33346884868,38.5772261542,102.14766401 1.35496465755,-0.664342593522,1.4737749085,0.00910702819294,0.18581411829,0.344989477143,0.534154195856,-0.562000155645,1.12352385338,0.951254134204,-0.0586019634556,0.878747192875,0.622282117858,0.0165608706063,-0.163876725997,-1.62208401734,-1.33411140318,0.608432815178 -0.359436228094,1.1434439547,-0.467694800715,0.410531677999,0.866762145316,-0.331320790405,-2.43545246963,1.93284994317,-0.406701274828,0.024683229607,2.83060499016,-0.0169639876899,-0.0833316335665,1.53535871713,-0.907691252852,0.87344521927,1.00059366002,0.313227729637 0.705046801784,-0.198434109773,-0.00301680699889,-1.53503928196,0.611191028849,0.827569213345,0.103699398367,0.828575270453,0.452094157539,-1.34705461535,-1.98502256983,0.0209051711893,-0.975125637176,1.96155764417,-2.34763661204,-0.781914635845,0.432147013723,0.175909769489 -2.57232914435,-0.314655430024,-1.18068632193,-0.235819670021,1.45467125243,0.211827960038,-0.745983708449,2.60431167488,-0.678275482521,0.559169015561,1.84795926846,-2.08114174231,-0.0911848193777,0.824355717211,-0.586614898595,0.590440178765,1.70370935701,-2.17163494212 1.66379330795,0.0140235128277,0.638961533281,0.153761129936,-0.527732060057,-0.321670349157,-0.0391104722756,-0.500400411105,-0.275554062882,-1.90049076692,1.48980723802,0.341973142925,-1.33828904144,1.91731719503,0.265724047714,0.647053957904,-0.505232856618,0.980857914828 
-104.638888179,-9.4670004498,4.20949254584,-1.3872983224,21.7634336468,8.12159614037,9.52512362318,-17.5792833521,-13.6843128362,-2.570107173,31.5676910684,-26.8334263966,22.4263768428,1.77436969396,10.2874727398,-75.8739265433,-3.14688857232,-2.98972010981,-37.579212987,-28.4055254658,-36.3346740842,-20.0644492358,-15.5537721409,31.5624698806,-17.5666863558,37.6640209333,4.95899007464,-4.40462446323,-7.64132762298,6.61981964761,-2.10742168992,-1.48052427751,-1.74497044565,-7.56869095858,-26.9833799627,1.30271843755 -80.0073395527,-6.90040406602,2.30209741962,-0.924097803015,17.4807410387,5.57236431814,7.59645514184,-12.340323748,-10.2226080417,-3.13031279896,24.6065643702,-20.549663661,15.078539532,2.57841680081,7.53822558613,-57.1874948995,-4.12077866135,-2.99928618096,-28.0692829091,-19.5109867246,-26.6015355177,-15.4313354053,-12.6244106224,24.1362826508,-9.73698128654,28.0635524282,6.18304863478,-2.86036288008,-5.99242988013,6.39539321367,-0.290663196064,-0.899652410879,1.55694509717,-3.87026174454,-19.6503299905,0.485987332747 -51.1512249587,-4.44470192323,2.27631121724,0.654052494577,9.5053309584,4.61700856891,2.21432848279,-7.31983791402,-8.61033630545,-0.288681719734,15.5962443523,-14.1358046184,9.71420508814,0.641506328141,2.95857344763,-36.6763035107,-1.07201860998,-4.21347984259,-17.4324122599,-13.8476055089,-16.5239667567,-9.04187209911,-8.88777998657,15.7723619932,-7.612246476,17.7505888189,2.3943390004,-1.52144736376,-1.95277080943,1.76326191507,-0.546592374577,-1.01821887568,-0.535439871955,-2.81428669327,-14.4255697957,0.0831146608827 -153.550597497,-14.2080407184,2.4352343628,-3.79001498487,32.7041212036,10.7041715604,14.3097144159,-23.8790903968,-21.2870758513,-0.561644048933,46.3028791368,-38.8708193698,33.8404562462,3.78062362469,13.6526556519,-111.466186455,-5.98513326693,-3.32929368665,-51.7336204422,-41.9588593466,-50.2565712685,-28.1657847205,-21.8911970429,45.9085896638,-23.3997617809,54.7763675815,9.7916639186,-4.46333763081,-13.7253427002,10.89093599,-1.40252701189,-1.02140964677,-0.379078680896,-9.2550531524,-41.4418132128,1.13201106323 -61.2373167871,-6.68788222555,1.41152861718,-2.69688784175,13.588635438,6.14181175077,5.56379972272,-10.368525977,-6.64637478275,-0.913133900286,19.6547619845,-17.0111445034,15.0991837729,1.23344922185,7.65171544112,-47.3705512813,-2.58467076396,-1.8522298584,-21.289914588,-17.4880842608,-22.3517489157,-13.8779752535,-9.80280727743,19.0102124943,-11.9382137123,26.0634626565,3.67457120678,-3.30818128824,-5.44896199919,4.39011586158,-1.05513175364,-1.03896727324,0.226176453842,-4.02158288842,-18.0370584658,0.460663374347 -138.667465656,-13.4969950366,4.80643322127,-4.4573847704,31.3580119534,11.6769690195,10.3669197106,-21.2247041842,-19.9433942766,-0.646028267344,41.8552605384,-35.6561025343,29.7612324346,2.97769936691,13.3757095235,-104.846771479,-5.46898957799,-2.68408455126,-47.5267870271,-38.302995042,-49.1847837757,-26.656115393,-21.6557288899,42.306448291,-22.5741588925,49.8782830077,9.08308409299,-4.069048996,-10.0535635316,9.66693028627,-1.89226081427,-0.846349141709,-0.765563305006,-8.88429085821,-39.6973559933,0.625735385104 -176.055792179,-17.5706870291,4.93111887227,-5.28977906699,37.5360776426,14.3872349745,15.5683222688,-28.3104555123,-22.5825567112,-3.92757695968,54.0884273349,-44.2681637002,37.7010191206,4.47417982767,15.7940370618,-128.677157733,-7.03441554533,-2.89853220444,-59.8696507518,-48.7351998154,-61.3927751661,-31.2424176101,-25.7950816312,52.4875639703,-27.3677543224,62.0694994433,10.5243317313,-3.2272587146,-13.2868945673,11.054996604,-1.29928116986,-1.36524817257,-0.371373467476,-11.0061793616,-48.2551471299,0.931006555301 -96.2581439692,-11.5515394975,1.40211980367,-0.46812907488,20.8931332342,7.08577332193,9.31808827605,-15.1245415442,-13.3903889769,-2.68861385897,29.1558659851,-24.8296268142,21.1753610633,2.32407157945,11.418080899,-69.1285536737,-2.05271038231,-1.26967656003,-32.5391481521,-26.9796239835,-32.5501388574,-17.6916874142,-14.7591322937,29.2936080631,-14.4831391609,35.427985768,7.09873253923,-4.41206199955,-6.37040759092,5.05156530982,-1.61456950306,0.290743911531,1.17612533433,-5.3181304471,-25.521110019,0.530269448304 -139.727516669,-14.0497002275,2.89003130485,-5.10600680381,29.7024747053,11.3645217367,12.2021140216,-22.2950035905,-19.4113317881,-1.43316240688,40.8543226692,-37.5832030405,29.4287571397,3.98017287923,12.7302278464,-101.230957761,-3.61722932141,-5.51783469569,-48.1994862576,-38.1419700138,-49.2745873729,-25.0283866675,-18.6358335122,41.250351456,-22.0663556936,49.5761896795,9.70830531593,-3.74322468528,-11.7724653961,7.67231475459,-2.6859891919,-1.1720225906,1.38503721361,-8.62007348928,-37.6234927757,0.443741939534 -86.2541487474,-9.5757243968,3.18002165104,-2.03720357334,16.6373586813,6.73643472614,7.23578550581,-14.0106961783,-12.184296184,-2.01508147219,26.886384018,-22.8316832366,17.4630606098,3.6175177176,10.0827957705,-62.6770321914,-2.02663827902,-2.52790977075,-29.7186683366,-23.69340178,-30.9672625035,-15.8344281885,-13.558791637,26.3833498358,-13.8543647076,31.3605864411,5.98652589881,-3.55374538288,-6.35258726215,4.9166005315,-1.99209845382,0.127550016448,0.302979395056,-8.18700137695,-23.1312115357,-0.560968540144 -147.996342584,-15.3042214702,4.04785277566,-1.34181607873,32.4136059033,12.9401662061,12.2231466843,-26.2122006259,-20.6816668653,-4.84718316751,46.1891335002,-39.1069906524,32.9232853025,4.52725044606,14.2635935548,-109.357172133,-7.48873432824,-2.6909952808,-51.6139417307,-39.6360052838,-51.698237342,-29.4154098973,-21.4301751551,44.5741359576,-21.2292083422,53.6695388317,11.1585945354,-3.87658516341,-11.5973792095,8.99550349319,-4.30055416666,0.706442055006,-1.09690717427,-9.69469515145,-39.1631344657,2.45193167994 -49.2880465594,-4.5552224535,2.50049613233,0.378307994017,9.4954408568,2.85418948113,3.2254489461,-8.47909254663,-5.63911137033,-1.29623096352,16.4840693312,-12.0020811908,9.29421767374,0.1834670408,3.14397542331,-35.8559134812,-2.69737260617,-0.630287381924,-17.5242165069,-14.1889962451,-15.2926938154,-10.31898121,-7.29004749607,15.1723413732,-6.72699202804,15.109443702,3.18341357923,0.779381674973,-3.55025974726,1.27945385616,0.958628306429,-1.29396123006,-1.28844149299,-3.17044905362,-13.2985988218,1.56789870676 -65.4710638459,-5.40746540042,1.84781653362,-0.387379356964,15.7220140712,5.27465952619,5.09245387093,-9.97504258178,-9.67867044489,-1.65531334501,21.0711186259,-18.8717698357,13.5726089329,2.83078677944,7.25373214522,-49.7976044878,-3.01351081042,-0.467354316382,-22.1339212535,-18.0401184562,-22.2337863714,-9.74753010257,-10.5359898254,21.4781907849,-11.0735085319,23.8694907222,5.83555813275,-3.35517150563,-4.17483938863,3.25630493807,-1.5057935857,0.0706987304548,-1.13506053172,-4.84527175125,-15.8638630373,1.02901887382 -121.322211714,-10.0392499228,1.57613361,-2.30229029874,25.6697515187,9.75614172108,11.6144416597,-18.8581085156,-16.353093678,-5.19959107609,35.6237750596,-30.8150841337,26.1854184481,2.03943339245,13.4572740395,-90.0381218405,-4.86479357241,-2.80912353151,-40.0758829231,-32.0955895385,-41.755999838,-23.0184339243,-17.7085054983,36.0875362586,-20.4045013935,43.79243519,8.20701939125,-2.50439121711,-9.0778234298,7.04066247226,-1.53462353077,-0.372122065335,0.41216615539,-7.03539453741,-32.0639999712,1.59187616718 -94.8106050629,-10.1776945611,4.097033097,-3.62755405293,19.6272212792,7.20891629646,6.95670622824,-13.9429252961,-14.0226540069,-2.62045360622,28.1355518939,-24.8685950073,22.331310116,2.00371619222,10.1437412189,-70.9671102152,-6.05665961374,-1.12091287513,-32.8424482831,-26.7791537516,-32.5254512537,-16.3451745113,-12.7028932549,28.9152773971,-14.2263998361,35.6605816092,6.55964465403,-1.39730156832,-8.94378196464,6.20877199185,-2.61559825602,0.976261847233,-0.322310736621,-4.70359805029,-26.0811482789,0.854411840956 -172.072549433,-16.4476163773,4.29411491867,-2.06836186225,37.5135862175,12.8765029294,15.7861376246,-27.9687769636,-22.6138436722,-3.66136564752,52.4940942292,-44.5048833903,38.9149499319,2.74769287204,17.8356819537,-126.964643607,-4.46683922163,-3.95148281788,-58.2227688971,-46.7520912267,-60.731174783,-32.3861461284,-24.6399247491,50.744670729,-25.8051095061,62.5594352394,13.4776469053,-5.68615952794,-13.4205989615,9.39133690979,-4.09841158844,-0.801090638065,1.14648893019,-10.0994020224,-48.6213705113,1.65873746035 -37.4209279242,-6.33552848532,1.76701737473,-1.53290235641,9.21505538575,3.58983913234,4.0818522739,-7.80777466295,-6.40061212683,-0.884160716186,11.750821581,-9.955822354,8.87022934782,0.390237305078,3.93311769143,-27.2579466438,-2.44003935525,0.370273014508,-14.6121192366,-10.4352097446,-12.6369418951,-7.41810628552,-5.93503448592,11.5373470149,-6.0277048591,14.4969352588,3.63143080543,-2.79802539605,-2.61385142122,1.23009430201,1.07392215893,0.426746638236,-1.10438253088,-4.56519497772,-10.1271297382,2.79520527654 -61.6754791657,-6.01056579646,1.12844108859,0.0355844609722,12.4478965651,5.73538324201,4.43973888459,-9.04147481321,-8.31255646098,-0.915390298326,20.1339531883,-15.6128654216,12.4501393502,2.54714798001,5.5205195557,-46.2881787016,-3.393778779,-3.61283420364,-20.6528118959,-17.0049331497,-20.8800167677,-11.9221730215,-8.80680797594,17.9201586128,-9.68968997568,21.3180381921,4.2403868077,-2.4568607592,-4.67695727506,4.36176919509,0.320282459463,-1.62212920819,-1.87731099458,-4.70398106819,-17.2460528577,0.142097120728 
-0.810811844108,1.91320844822,1.74125091717,-152.594158498,-2.5917568005,0.681036995273,-2.42323343079,-0.964411781395,-0.367643071261 -0.0219915156038,1.2303181267,-1.60413813645,-276.720891697,0.556328449084,-0.814375994155,0.433043996652,-1.30200097411,0.650061475048 -9.86891791866,-0.477875385885,-0.252446392239,-315.442116777,-0.422004859509,-2.85931562212,-0.933237453718,-1.3976727455,-0.685588947089 -1.20974550202,-1.86426136496,0.0866619070599,-311.459513592,1.44240796683,-0.588400365214,-2.35213106713,1.45723189994,-1.89894295795 -9.27271161934,-0.381705679548,-1.47910227735,-70.2659055578,-0.8137641586,0.260632367953,-1.46896537305,0.906714202157,-0.788817660779 -10.8485499916,0.366174536004,0.144681321159,-293.371802846,-2.44884625726,-0.8855017183,0.335869100163,-2.42967751687,-1.81615901924 -8.61665280035,0.0213252254927,-1.53628217183,-69.1034735746,-1.11597351981,-2.89138581717,-0.537659047155,0.123277773252,-1.11945993177 1.35772376085,0.138244351218,0.0303123684487,-74.4768536058,0.310927586502,-1.86166452687,1.45558657116,-0.986447042946,1.5299199543 0.00731736390485,0.151264191016,-2.9101975733,-272.584052215,0.413963895934,-0.25484651765,0.018899011293,0.332444247424,-1.05470678064 0.0742942446923,-0.330591663327,0.867226539622,-5.66259330593,0.451722004319,-0.670946267815,-0.157477633058,-0.385863608925,0.0654592630228 -9.19973562872,0.807300173054,1.22223370003,-41.9406390955,-1.22104456442,0.0522930388253,0.217789052905,-1.98065693685,-0.652959670137 -2.18013209102,-1.01796524592,-2.46353967351,-279.698539226,-0.653804298141,-0.68633121925,2.37340728916,-0.81086244308,0.242656790224 -10.8466299032,-1.34206917576,-0.120753480517,-287.193116696,-1.40894264689,0.700920294168,-0.278702540436,-0.527294716237,-0.117693930052 -10.606429733,0.76831333827,-0.29828177738,-318.309176638,0.518111540904,-0.41712742707,-2.30156025035,-1.14674053091,1.02257856477 -10.3784613905,-2.15980118593,0.904215550682,-71.4231397416,-1.50105610495,-0.267303380035,-0.604482606599,0.472733989064,0.7539940658 1.19175809406,-0.923471059837,1.48141956493,-79.2563523051,-2.43720946777,-0.538178489732,-0.67564427723,0.107146323645,-1.52020931531 -0.940276337644,-0.108291456292,-1.25489609016,-201.252172177,0.962581056062,-0.295422654157,0.421971630146,0.114347357403,-1.44024512603 1.08862621633,-1.72401945586,1.28770760113,-256.43826927,-1.36669026499,0.510648815979,-0.52544661899,1.18326686146,-2.20943414432 -1.1340503047,-0.92131931811,-0.118385692388,-153.15679493,-2.03306982721,0.608225893624,0.198603923856,-0.854128334429,-2.06282252398 -1.06015681672,-0.653642100449,1.27528212733,-285.814346219,-2.08943744011,1.59098512794,-1.79932520217,-0.362099417395,-0.570705740465 -0.851029936046,-0.433206731325,0.138370085771,-186.374247972,-2.64099111172,1.09314249658,1.10882258638,-1.06204490338,1.27143601784 -0.721240834355,0.788059322482,-0.516356532374,-141.769740455,1.08196269364,-2.73099704164,-0.707452490932,1.02816822084,1.88857997285 -1.36146455181,0.23686392626,-0.345590831867,-18.6225166759,0.585122951919,1.49440815841,1.54770016033,-0.940213920004,0.181271683926 -11.1221374479,0.951896564112,-0.961091393501,-295.117347313,-0.746876354767,-1.52067636349,-1.44611896385,-1.69486551085,-1.09024490915 -1.09111533667,-1.79048679481,-0.931126873993,-293.431427355,-2.10452440837,1.09208519932,-1.11111150835,-1.44219059232,0.397980501366 -10.6537634474,-1.40281572294,0.289709596642,-124.127984047,0.714036526108,-0.180321927655,-2.05156345072,1.81649861072,-0.783892572478 -9.51809792306,-2.59066486584,-2.32208902266,-226.023074026,-1.75182776808,1.94149444661,-0.782595212216,0.678960835304,-1.89381261195 0.918421301597,0.896813193623,-0.412829880072,-312.364468391,-0.89612810931,-0.401687796261,0.805606548619,-3.02292997555,-0.398759511363 -0.266663827085,0.747582965148,0.136090630289,-166.400973781,-0.0090333259611,1.38382787775,-1.09200500129,-1.04815614604,-1.85873615617 -9.19169999995,-1.69891181606,-0.987164516483,-293.000835062,0.625841026458,-2.38735713269,-0.489889476128,-1.24198074417,-0.10322728467 -1.68937677847,-0.684148437011,-0.0676922169591,-311.499744125,-2.24053345289,-0.598381228794,-0.966209744672,-1.72412617385,0.248997027984 0.591910150925,1.43676934383,0.84937310983,-0.770594370123,0.760434733583,-1.27164577202,0.947290195777,0.175110178742,-0.364055880063 0.202050277303,-2.90118952129,-0.162515565926,-311.316872448,-0.938117845905,-0.664439956369,-0.219540350452,-0.288189890473,-1.06811205163 0.748501372679,-1.56700794016,-0.416778423851,-288.092312469,-0.20240910461,0.188980074462,0.621990999956,-2.08934064096,1.1819938042 0.212074144338,-2.35241872811,0.540051303301,-21.7211061859,1.10379035514,0.939554897465,-0.445317294071,-0.944356712425,0.451162509004 -9.74896162297,-0.403722819819,-2.2182917895,-316.569105206,0.724040134305,0.736003892907,0.118950069005,-1.1320332686,-0.30398606573 
